{
  "weights": {
    "style": 0.45,
    "traits": 0.4,
    "lexicon": 0.15
  },
  "style_sim_min": 0.0056,
  "style_sim_max": 0.2542,
  "trait_model": {
    "bias": 3.050557283965965,
    "token_weights": {
      "oof": -0.9290313630859407,
      "that's": -0.8981995082951199,
      "not": -0.28508153123432456,
      "it": 1.834074610189933,
      "bestie": 1.4166402202484252,
      "fries": -0.8456081407463469,
      "should": 0.4125587923071916,
      "hit": 0.4753775813217644,
      "different": 0.8358038541181808,
      "when": 0.4912117218755972,
      "they're": 0.6705512005317562,
      "fresh": 0.9518582769235767,
      "slide": -0.9290313630859407,
      "into": -0.45365729941816707,
      "our": -2.9270581123416917,
      "dms": -0.9290313630859407,
      "with": -0.752326951474015,
      "where": 0.3664635976787043,
      "this": 0.6683180408116266,
      "happened": -0.042613465518193,
      "and": 0.00015376283890781962,
      "we'll": 1.667775405732254,
      "make": 1.0373877831403748,
      "right": 0.855488766032482,
      "we": -0.2596059268683422,
      "sincerely": -0.30642989909673873,
      "apologize": -0.7276649714259866,
      "for": -2.8990438226141437,
      "experience": -0.3885539552377215,
      "are": -1.4287747587967965,
      "prepared": -0.075133281242277,
      "throughout": -0.075133281242277,
      "the": 0.7130903430878529,
      "day": 0.8509460954671957,
      "please": -1.5875496627613788,
      "contact": -0.6602483160268329,
      "customer": -0.2620343420091165,
      "service": -0.5999057025060747,
      "team": -0.46673774221718434,
      "at": -1.6509139642764552,
      "1": -0.13154942437008027,
      "888": -0.075133281242277,
      "wendys": -0.075133281242277,
      "so": 0.840983816697982,
      "can": 0.41639396575385695,
      "address": 0.1512140890186091,
      "your": -1.8552347307580843,
      "concerns": -0.075133281242277,
      "being": 0.8694572991494548,
      "able": 0.07737770773091907,
      "to": -0.9496461582258743,
      "add": 0.21484514628008872,
      "a": -1.5708170981612828,
      "frosty": -1.003615831970424,
      "is": 0.7120678191799843,
      "crisis": 0.07737770773091907,
      "actually": 1.3947116734888076,
      "try": -0.5733171181757473,
      "closing": 0.07737770773091907,
      "app": -0.06759448595384086,
      "reopening": 0.07737770773091907,
      "if": -0.23562196168307217,
      "that": -0.06275147022762684,
      "doesn't": 0.30384103819906394,
      "work": 0.4646267015550403,
      "dm": 1.5967820977141411,
      "us": 1.1966670617927706,
      "figure": 0.07737770773091907,
      "out": 0.642751884648494,
      "together": -0.0038740277163662284,
      "understand": -0.31941895183453695,
      "frustration": -0.23161708652276142,
      "mobile": -0.14497219368475972,
      "application": -0.13646184304191927,
      "following": -0.13646184304191927,
      "troubleshooting": -0.13646184304191927,
      "steps": -0.13646184304191927,
      "clear": -0.13646184304191927,
      "cache": -0.13646184304191927,
      "2": -0.05641614312780343,
      "reinstall": -0.13646184304191927,
      "3": -0.13646184304191927,
      "support": -0.05891804940529225,
      "issue": -0.23973152332799375,
      "persists": -0.13646184304191927,
      "ngl": 0.5435485458978878,
      "unacceptable": 0.18095017228721672,
      "need": 0.36360354838659176,
      "fix": 0.3399757784644528,
      "which": 0.5078191106785329,
      "location": -0.9913312578953637,
      "get": 0.9301727920988261,
      "you": -2.1855162972560396,
      "sauce": 0.17559686084426768,
      "sure": 0.16364454145357182,
      "keep": 0.5261778392233959,
      "happening": 0.5183035861999551,
      "repeated": -0.09639817440533534,
      "oversight": -0.17179243727083846,
      "reflective": -0.09639817440533534,
      "of": -0.5612558167210955,
      "quality": -1.1575744753945258,
      "standards": -0.17179243727083846,
      "provide": -0.4560541322521711,
      "details": 0.17423601465402405,
      "via": -0.32201698308900534,
      "may": -0.5786191592956338,
      "follow": -0.09639817440533534,
      "up": -0.09639817440533534,
      "management": 0.10565254156678902,
      "breakfast": 0.5357868900118301,
      "very": 0.105027019570932,
      "real": 0.105027019570932,
      "now": 0.08025487230688168,
      "baconator": 0.4792099339096649,
      "hits": 0.3852590597837121,
      "8am": 0.105027019570932,
      "tbh": 0.7747780401017544,
      "yes": -0.44484755878844157,
      "wendy's": -1.7873752436953818,
      "available": -0.19344630978335914,
      "daily": -0.05195835452211304,
      "participating": -0.13764786996500608,
      "locations": 0.23305183122341375,
      "visit": -0.5903260135548141,
      "website": -0.14615822060784658,
      "menu": -1.0026499827928876,
      "hours": -0.05195835452211304,
      "operation": -0.05195835452211304,
      "nearest": -0.05195835452211304,
      "restaurant": -0.1270948932183358,
      "okay": 0.8936480929193122,
      "20": 0.2579924082245638,
      "minutes": 0.3588968805976651,
      "way": 1.1069270088897096,
      "too": 0.1767406727772787,
      "long": 0.2579924082245638,
      "shouldn't": 0.2579924082245638,
      "have": 0.4390761363226321,
      "wait": 0.15472272793848926,
      "like": -0.3710416341980937,
      "tell": 0.5843220520969956,
      "crew": 0.2579924082245638,
      "order": -0.42897627269698674,
      "number": 0.2579924082245638,
      "still": -0.2564891072578396,
      "helping": 0.2579924082245638,
      "asap": 0.5179224867749013,
      "extended": -0.10326968028607462,
      "time": 0.21605974598878613,
      "bring": -0.32949503060212526,
      "attention": -0.19450134222117452,
      "on": -0.34619116879066153,
      "duty": -0.10326968028607462,
      "manager": -0.10326968028607462,
      "immediately": -0.09686330953806728,
      "resolved": -0.10326968028607462,
      "care": -0.10326968028607462,
      "line": -0.10326968028607462,
      "47": 0.16716337133354608,
      "pickles": -0.30408014879631834,
      "asked": 0.16716337133354608,
      "zero": 0.16716337133354608,
      "impressive": 0.16716337133354608,
      "in": -1.394124418321826,
      "worst": 0.16716337133354608,
      "fulfilling": -0.22156721763783865,
      "correctly": -0.9550365246281969,
      "special": -0.22156721763783865,
      "requests": -0.33043131172563894,
      "important": 0.00699925020067412,
      "let": 0.8161735037404447,
      "know": 0.7262235098216739,
      "how": -1.182565730765632,
      "machine": 0.19541087176283137,
      "works": 0.07666314605676126,
      "because": 1.0161043287523797,
      "maintain": 0.19541087176283137,
      "equipment": 0.044731639613278654,
      "just": 2.425683642317119,
      "built": 0.19541087176283137,
      "prioritize": -0.055523988668710486,
      "maintenance": -0.15067923214955278,
      "ensure": -0.28114279735238035,
      "consistent": -0.055523988668710486,
      "availability": -0.055523988668710486,
      "items": -0.5145964298754991,
      "we're": -2.5336538340961106,
      "glad": -0.16293615302241038,
      "always": -0.055523988668710486,
      "count": -0.055523988668710486,
      "energy": 0.3861832046216134,
      "love": -0.18565965941048285,
      "see": 0.16783449727270264,
      "shout": 0.18414638410356302,
      "them": 1.2730665803578873,
      "thank": -0.316429631501171,
      "taking": -0.1411294687948103,
      "share": -0.705745557973821,
      "positive": -0.15703581350633616,
      "feedback": -0.5848649401994993,
      "members": -0.1533644654294671,
      "hard": -0.2596313799474857,
      "excellent": -0.17700145829346844,
      "appreciate": -0.6502441717434668,
      "letting": -0.1411294687948103,
      "cold": 0.48683336889732853,
      "soggy": 0.40323452735787274,
      "opposite": 0.40323452735787274,
      "what": 0.5080846268067787,
      "want": 0.535253476854403,
      "receipt": 0.6187941660008232,
      "sorted": 0.5041389997309739,
      "sorry": -0.044370439907387246,
      "hear": 0.08916725260890035,
      "meal": 0.4052079745153982,
      "did": -0.044370439907387246,
      "meet": -0.044370439907387246,
      "expectations": -0.13560210184248686,
      "information": -0.06800743277138838,
      "process": -0.06491652391728792,
      "refund": -0.044370439907387246,
      "set": 0.268803363127315,
      "their": -0.22297813597626498,
      "own": 0.21762388825127518,
      "pricing": 0.09555116093015233,
      "but": 1.5084662439306356,
      "good": -0.3814166221284812,
      "costs": 0.268803363127315,
      "money": 0.268803363127315,
      "said": 1.1703221185099637,
      "has": -0.1041881633146201,
      "flavor": 0.13172772836510027,
      "policies": -0.1732522021971631,
      "vary": -0.9452702968106815,
      "by": -1.0335883068885814,
      "franchise": -0.1732522021971631,
      "regarding": -0.1732522021971631,
      "charges": -0.1732522021971631,
      "will": -0.04736396438205268,
      "operations": -0.26448386413226316,
      "imagine": -0.4223786432536732,
      "thinking": 0.02831879286629005,
      "frozen": 1.5035594003422288,
      "beef": 1.1270401036416446,
      "could": 0.18633231542536016,
      "ever": 0.684652405278342,
      "look": 0.5242389405439661,
      "be": -1.2434350485517842,
      "here": 1.7165995919219443,
      "stuff": 0.04886487687619071,
      "you're": 0.10026585872659191,
      "ready": 0.46217771692777854,
      "all": -0.27911056492721886,
      "competition": -0.0511794748760399,
      "fast": -0.49219490157526374,
      "food": -0.6941767173949334,
      "space": -0.06708581958756583,
      "focus": -0.18355459706157407,
      "ingredients": -0.2652441697176933,
      "product": -0.086870023163027,
      "speak": -0.0511794748760399,
      "itself": -0.0511794748760399,
      "respectfully": 0.42372260989050403,
      "tried": 0.22900966563424946,
      "ours": 0.17909740525563034,
      "spicy": 0.5383791099971673,
      "chicken": 0.11020719253646792,
      "sandwich": -0.31086831759316746,
      "it's": -0.8710705795102414,
      "crispy": 0.22900966563424946,
      "enjoyed": -0.06637702354733978,
      "also": 0.7533247463276297,
      "offers": -0.6591965656120743,
      "variety": -0.4206103125547056,
      "sandwiches": -0.08560280866560648,
      "we'd": -0.041739621581334846,
      "compare": -0.049912260378619344,
      "soon": -0.049912260378619344,
      "saying": 0.39693035777513086,
      "everyone's": 0.39693035777513086,
      "copying": 0.39693035777513086,
      "homework": 0.39693035777513086,
      "square": 0.5777247606269659,
      "patty": 0.4597491467897037,
      "been": 0.6261418420934075,
      "since": 0.39693035777513086,
      "1969": 0.39693035777513086,
      "innovation": -0.061329179724439555,
      "quick": -0.16041159112633907,
      "industry": -0.16041159112633907,
      "benefits": 0.3345629602155462,
      "customers": -1.252534279930562,
      "proud": -0.24638294801546168,
      "unique": -0.3596283353374548,
      "offerings": -0.31219392901556786,
      "continue": -0.061329179724439555,
      "develop": -0.061329179724439555,
      "new": -0.24113652411937234,
      "they": 0.06974144505289785,
      "really": 0.13746743854916957,
      "thought": 0.13746743854916957,
      "'crispy'": 0.13746743854916957,
      "name": 0.13746743854916957,
      "wouldn't": 0.13746743854916957,
      "notice": 0.13746743854916957,
      "luck": 0.4187613291042266,
      "situation": 0.29142807206853333,
      "tho": 0.1745264390579911,
      "aware": -0.035690548286987256,
      "competitive": -0.15840995255288837,
      "changes": -0.035690548286987256,
      "offered": -0.035690548286987256,
      "years": 0.34252523253701866,
      "confident": -0.035690548286987256,
      "value": -0.6868369780373843,
      "proposition": -0.035690548286987256,
      "comparing": 0.07925539302506035,
      "burgers": -0.06356568757563688,
      "tacos": 0.07925539302506035,
      "wild": 0.07925539302506035,
      "do": 0.2676696690009547,
      "actual": 0.07925539302506035,
      "taco": 0.07925539302506035,
      "phase": 0.07925539302506035,
      "passes": 0.07925539302506035,
      "cravings": -0.44564037730064177,
      "call": -0.3437440392395364,
      "choices": -0.8278006966925512,
      "respect": -0.3194957282753851,
      "dining": -0.44564037730064177,
      "preferences": -0.4539000858883171,
      "mood": -0.44564037730064177,
      "burger": -0.854467507755247,
      "don't": -0.16822983288079,
      "cut": 0.30993599074086653,
      "corners": 0.30993599074086653,
      "literally": -0.020669080573129335,
      "whole": 0.7551182271705379,
      "thing": 0.24711720172629362,
      "great": -0.6875225388701894,
      "question": -0.05993865016120538,
      "patties": 0.11797561383726235,
      "signature": -0.46943106597413126,
      "feature": -0.09691706537193977,
      "ensures": -0.09691706537193977,
      "meat": -0.09691706537193977,
      "every": -0.4929703769725745,
      "bite": -0.09691706537193977,
      "part": -0.19096648543559422,
      "makes": 0.09779587888431458,
      "marketplace": -0.11324538732199274,
      "never": 0.5971230425018105,
      "yeah": -0.29306359467329895,
      "next": -0.35311235731212715,
      "dynamic": -0.12271940426590061,
      "continues": -0.09908241140189931,
      "perform": -0.09908241140189931,
      "well": -0.8132323572381615,
      "across": -0.09908241140189931,
      "key": -0.09908241140189931,
      "metrics": -0.09908241140189931,
      "focused": -0.09908241140189931,
      "serving": -0.09908241140189931,
      "audacity": 0.22921148431827637,
      "meanwhile": 0.22921148431827637,
      "over": 0.4585663807031438,
      "doing": 0.8266627799414071,
      "most": 0.33110782237938224,
      "many": -0.3305693393353364,
      "chains": -0.18505376829102205,
      "offer": -0.4741529838677167,
      "options": -0.6127697661317938,
      "morning": 0.4507337601111292,
      "daypart": -0.18505376829102205,
      "got": 0.5419037485211661,
      "an": 0.47768276237561097,
      "upgrade": 0.1038759703300397,
      "elite": 0.29666507287297866,
      "slept": 0.1038759703300397,
      "excited": -0.08568951544289298,
      "announce": -0.08568951544289298,
      "several": -0.08568951544289298,
      "explore": -0.0939492240305687,
      "full": 0.3338396173610945,
      "find": -0.09419986608573347,
      "limited": -0.08568951544289298,
      "dip": 0.45821936866558055,
      "welcome": -0.031299039937467715,
      "premium": -0.2062281324203239,
      "made": 0.6677054810040985,
      "features": -0.27989671536291233,
      "something": 0.5521103445546955,
      "everyone": -0.14282108060069734,
      "serve": -0.14282108060069734,
      "today": -0.14282108060069734,
      "biggie": 0.1151118211779162,
      "bag": 0.1151118211779162,
      "alive": 0.5080010254442447,
      "thriving": 0.5080010254442447,
      "5": 0.1151118211779162,
      "gets": 0.7007901279871838,
      "basically": 0.5080010254442447,
      "unheard": 0.5080010254442447,
      "rn": 0.5080010254442447,
      "option": -0.39288920426632873,
      "featuring": -0.39288920426632873,
      "nuggets": -0.10154247004976746,
      "drink": -0.39288920426632873,
      "prices": -0.39288920426632873,
      "pretzel": 0.17845442989960542,
      "bun": 0.17845442989960542,
      "supremacy": 0.2253967185505113,
      "can't": -0.24584680157935332,
      "promises": 0.2253967185505113,
      "current": 0.2253967185505113,
      "buns": 0.2253967185505113,
      "hitting": 0.2253967185505113,
      "while": -0.48963058269922577,
      "currently": -0.0469422886509058,
      "loyalty": 0.23008533160210295,
      "encourage": -0.0552019972385814,
      "other": -0.0469422886509058,
      "start": 0.13201894949652987,
      "properly": 0.13201894949652987,
      "sausage": -0.103419416343447,
      "biscuit": -0.103419416343447,
      "classic": -0.41470190630185133,
      "ccino": -0.103419416343447,
      "caffeine": 0.13201894949652987,
      "dessert": 0.13201894949652987,
      "delicious": -0.3725140006021914,
      "popular": -0.23543836583997702,
      "include": -0.23543836583997702,
      "beverage": -0.23543836583997702,
      "apple": 0.1788247211201902,
      "pecan": 0.1788247211201902,
      "salad": -0.23000240933441482,
      "goes": 0.1788247211201902,
      "crazy": 0.1788247211201902,
      "nobody": 0.1788247211201902,
      "talks": 0.1788247211201902,
      "about": 0.10731977448282286,
      "chili": 0.06033509401459652,
      "people": 0.5742253007711977,
      "forget": 0.1788247211201902,
      "realize": -0.11848962710559403,
      "salads": -0.11848962710559403,
      "famous": -0.11848962710559403,
      "these": -0.30144673589821164,
      "complement": -0.11848962710559403,
      "any": -0.12416743627638589,
      "craving": -0.11848962710559403,
      "even": 0.05122237457853107,
      "regular": 0.05122237457853107,
      "both": -0.7223334937287993,
      "breading": -0.13707563476221493,
      "traditional": -0.13707563476221493,
      "choose": -0.13707563476221493,
      "based": -0.13707563476221493,
      "heat": -0.13707563476221493,
      "preference": -0.7308438443716399,
      "quantity": 0.22935489638486725,
      "vs": 0.22935489638486725,
      "whatever": 0.22935489638486725,
      "there": 0.22935489638486725,
      "taste": -0.14134618584583095,
      "buds": 0.8757788487248561,
      "budget": -0.13846224496425846,
      "focuses": -0.13846224496425846,
      "believe": -0.13846224496425846,
      "products": -0.23607082596249845,
      "superior": -0.21406469484165352,
      "price": -0.13846224496425846,
      "point": -0.13846224496425846,
      "much": -0.05316076410629064,
      "kind": -0.126865747561464,
      "words": -0.126865747561464,
      "create": -0.15285522605046054,
      "engaging": -0.20811323931937492,
      "content": -0.20836091853378674,
      "followers": -0.11463075092680715,
      "means": -0.05316076410629064,
      "everything": -0.05316076410629064,
      "converting": 0.3954005796510075,
      "one": 0.3954005796510075,
      "fry": 0.3954005796510075,
      "awesome": -0.40964522103616646,
      "combination": -0.40964522103616646,
      "fan": -0.40964522103616646,
      "favorite": -0.40964522103616646,
      "thanks": -1.033081587107734,
      "spreading": -0.40964522103616646,
      "word": -0.40964522103616646,
      "pairing": -0.40964522103616646,
      "vibing": -0.3499176129753169,
      "someone's": 0.4461321393092796,
      "gotta": 0.4461321393092796,
      "twitter": 0.7663743634002417,
      "interesting": 0.31375701712374543,
      "engagement": -0.04117158202502774,
      "social": -0.21457102742437106,
      "personality": -0.04117158202502774,
      "humor": -0.04117158202502774,
      "communications": -0.06480503715978697,
      "enjoy": -0.20621143470495681,
      "red": 0.19278910254293907,
      "pigtails": 0.19278910254293907,
      "place": -0.63341646174689,
      "branding": 0.19278910254293907,
      "toddler": 0.19278910254293907,
      "adorable": -0.22752920613743313,
      "hearing": -0.22752920613743313,
      "stories": -0.22752920613743313,
      "from": -0.3306774360143562,
      "kids": -0.22752920613743313,
      "best": 0.20785174843821844,
      "describing": -0.22752920613743313,
      "things": -0.22752920613743313,
      "sharing": -0.30878094158471786,
      "25": 0.3782157808240054,
      "wow": -0.0270259439387202,
      "honored": -0.0270259439387202,
      "such": -0.5597394508890999,
      "loyal": -0.0270259439387202,
      "choosing": -0.04349070710744074,
      "continued": -0.06400838651333673,
      "dogs": 0.3263296438724317,
      "impeccable": 0.3263296438724317,
      "confirmed": 0.3263296438724317,
      "her": 0.3263296438724317,
      "hi": 0.3263296438724317,
      "pets": -0.08125173544728541,
      "sweet": -0.08125173544728541,
      "story": -0.08125173544728541,
      "hope": -0.6081685925100822,
      "visits": -0.08125173544728541,
      "give": -0.08125173544728541,
      "pup": -0.08125173544728541,
      "pat": -0.08125173544728541,
      "forward": 0.20205071597212443,
      "media": -0.17339944539934343,
      "passionate": -0.06146998682051652,
      "community": -0.07991695700677548,
      "lucky": -0.06146998682051652,
      "supportive": -0.06146998682051652,
      "scientific": 0.3352556585144109,
      "rigor": 0.3352556585144109,
      "correct": 0.2596532086370158,
      "opinion": 0.3352556585144109,
      "putting": -0.3146554244868501,
      "top": -0.33112018765557005,
      "strive": -0.3146554244868501,
      "choice": -0.33098374643690287,
      "controversial": 0.1947129442562546,
      "opinions": 0.1947129442562546,
      "beautiful": 0.1947129442562546,
      "flavors": -0.5852578589665843,
      "fans": -0.5852578589665843,
      "happy": -0.5937682096094244,
      "enjoying": -0.5852578589665843,
      "treats": -0.5852578589665843,
      "valid": -0.3102969458947325,
      "incredibly": 0.2749609130718509,
      "specific": -0.10416797727533847,
      "rating": 0.2749609130718509,
      "system": 0.2749609130718509,
      "knocked": 0.2749609130718509,
      "down": 0.2749609130718509,
      "10": 0.43923628363176764,
      "dedication": -0.4547313402245838,
      "you'd": -0.3791288903471893,
      "atlanta": -0.3791288903471893,
      "inconvenience": -0.005677809170791903,
      "caused": -0.005677809170791903,
      "committed": -0.02158415388231784,
      "providing": -0.08128025904818686,
      "highest": -0.005677809170791903,
      "valued": -0.005677809170791903,
      "send": -0.08107207203629511,
      "direct": -0.029311264305551185,
      "message": -0.08107207203629511,
      "matter": -0.3190984831662367,
      "appropriately": -0.005677809170791903,
      "business": -0.04009821830347983,
      "delighted": -0.08180591021510594,
      "satisfaction": -0.0164647631687205,
      "priority": -0.24208357185239057,
      "wonderful": -0.0164647631687205,
      "consumer": -0.008259708587675557,
      "however": -0.11365337369332386,
      "would": -0.008259708587675557,
      "remind": -0.008259708587675557,
      "suit": -0.016770059230515978,
      "convenience": -0.008259708587675557,
      "grateful": -0.03698244257461652,
      "commitment": -0.11258489245201153,
      "excellence": -0.03698244257461652,
      "worthwhile": -0.03698244257461652,
      "hesitate": -0.03698244257461652,
      "reach": -0.03698244257461652,
      "further": -0.03698244257461652,
      "assistance": -0.03698244257461652,
      "diligently": -0.012234996634656914,
      "take": -0.075602449877395,
      "pride": -0.075602449877395,
      "indeed": -0.075602449877395,
      "as": -0.18834949315211102,
      "noticing": -0.075602449877395,
      "difference": -0.075602449877395,
      "regret": -0.16662592480060312,
      "representative": -0.07539426286550326,
      "usual": -0.07539426286550326,
      "local": 0.026502075195601604,
      "or": 0.017991724552761143,
      "private": -0.07539426286550326,
      "rectify": -0.07539426286550326,
      "restore": -0.07539426286550326,
      "confidence": -0.07539426286550326,
      "brand": -0.1821592431296621,
      "pleased": -0.01844697018625886,
      "presence": -0.01844697018625886,
      "goal": -0.01844697018625886,
      "meaningful": -0.01844697018625886,
      "connections": -0.01844697018625886,
      "maintaining": -0.03435331489778472,
      "values": -0.01844697018625886,
      "family": -0.8906581284995153,
      "distinctive": -0.016328321950052953,
      "shaped": -0.016328321950052953,
      "design": -0.016328321950052953,
      "allows": -0.016328321950052953,
      "differentiate": -0.016328321950052953,
      "ensuring": -0.016328321950052953,
      "optimal": -0.016328321950052953,
      "wide": -0.00851035064284044,
      "recommend": -0.00851035064284044,
      "exploring": -0.00851035064284044,
      "view": -0.00851035064284044,
      "complete": -0.00851035064284044,
      "selection": -0.00851035064284044,
      "perfect": -0.00851035064284044,
      "staff": -0.00851035064284044,
      "assist": -0.00851035064284044,
      "recommendations": -0.00851035064284044,
      "upon": -0.00851035064284044,
      "arrival": -0.00851035064284044,
      "frequent": -0.08780186531177459,
      "updates": -0.08780186531177459,
      "inconvenient": -0.08780186531177459,
      "necessary": -0.08780186531177459,
      "improve": -0.1790335272468745,
      "functionality": -0.08780186531177459,
      "enhance": -0.08780186531177459,
      "security": -0.08780186531177459,
      "possible": -0.08780186531177459,
      "user": -0.08780186531177459,
      "patience": -0.18295710879261695,
      "understanding": -0.10539366510564817,
      "marketing": -0.015906344711525914,
      "strives": -0.015906344711525914,
      "relevant": -0.015906344711525914,
      "resonates": -0.015906344711525914,
      "target": -0.015906344711525914,
      "demographic": -0.015906344711525914,
      "leadership": -0.015906344711525914,
      "position": -0.015906344711525914,
      "having": -0.4712435201298641,
      "bad": -0.4712435201298641,
      "maybe": -0.8886219539650865,
      "stick": -0.4712435201298641,
      "plain": -0.4712435201298641,
      "bread": -0.4712435201298641,
      "nah": -0.29685740750148937,
      "wherever": -0.29685740750148937,
      "live": -0.29685740750148937,
      "lol": -0.9091110152766457,
      "better": -0.5269168570627967,
      "making": -0.5269168570627967,
      "than": -0.5269168570627967,
      "tweeting": -0.5269168570627967,
      "least": -0.8722111583132559,
      "someone": -0.8722111583132559,
      "sounds": -0.40882713045460467,
      "problem": -0.40882713045460467,
      "bar": -0.40882713045460467,
      "nice": -0.7141499458362622,
      "job": -0.7141499458362622,
      "solution": -0.7246562493491,
      "problems": -0.7246562493491,
      "must": -0.7246562493491,
      "serious": -0.4926310699174237,
      "wanted": -0.41737843383522283,
      "healthy": -0.41737843383522283,
      "came": -0.41737843383522283,
      "wrong": -0.31647396146212176,
      "gym": -0.41737843383522283,
      "instead": -0.41737843383522283,
      "haven't": -0.7334693069903592,
      "figured": -0.7334693069903592,
      "embarrassing": -0.7334693069903592,
      "distressing": -0.22561880868367007,
      "safety": -0.22561880868367007,
      "utmost": -0.22561880868367007,
      "investigate": -0.22561880868367007,
      "thoroughly": -0.22561880868367007,
      "proper": -0.22561880868367007,
      "protocols": -0.22561880868367007,
      "followed": -0.22561880868367007,
      "rough": -0.5339638496938683,
      "more": -0.5742968950912885,
      "info": -1.341590155393135,
      "45": 0.10090447237310066,
      "definitely": 0.25993007855033684,
      "supposed": 0.25993007855033684,
      "happen": 0.34352892008979247,
      "help": 0.25993007855033684,
      "away": 0.23202517943167777,
      "malfunctions": -0.09515524348084227,
      "situations": -0.09515524348084227,
      "regrettable": -0.09515524348084227,
      "resolve": -0.09515524348084227,
      "ongoing": -0.09515524348084227,
      "issues": -0.09515524348084227,
      "yikes": -1.0720003044826563,
      "vibe": -1.0720003044826563,
      "going": -1.0720003044826563,
      "met": -0.09123166193509973,
      "use": -0.09123166193509973,
      "bringing": -0.09123166193509973,
      "speaker": 0.8076263056992663,
      "busted": 0.8076263056992663,
      "crime": 0.08359884153945624,
      "against": 0.08359884153945624,
      "humanity": 0.08359884153945624,
      "again": 0.08359884153945624,
      "pov": 0.6357875284021517,
      "no": 0.45562210477647824,
      "thoughts": 0.29134673421656143,
      "main": 0.20203682051805014,
      "character": 0.20203682051805014,
      "dropped": 0.4463636635368385,
      "y'all": 0.4463636635368385,
      "already": 0.4463636635368385,
      "asking": 0.5482600015979446,
      "notes": 0.16427537055991642,
      "feel": 0.9525584144608321,
      "free": 0.9525584144608321,
      "screenshot": 0.9525584144608321,
      "strategy": -0.06534114704638537,
      "memorable": -0.06534114704638537,
      "only": 0.14474621003840402,
      "roast": 0.31333172923025904,
      "competitors": 0.16233800983227736,
      "unhealthy": 0.23122100115925504,
      "obsession": 0.23122100115925504,
      "roasting": 0.23122100115925504,
      "omg": -0.7960497522845963,
      "yaaaas": -0.7960497522845963,
      "queen": -0.7960497522845963,
      "lit": -0.7960497522845963,
      "fam": -0.7960497522845963,
      "totally": -0.7960497522845963,
      "unhinged": 0.3265450314235238,
      "passionately": 0.3265450314235238,
      "anti": 0.3265450314235238,
      "head": 0.4380277781911264,
      "wendysjobs": 1.4524962695686587,
      "com": 1.4524962695686587,
      "show": 0.4380277781911264,
      "compensation": -0.023636992864001363,
      "comprehensive": -0.023636992864001363,
      "opportunities": -0.04727044799876071,
      "career": -0.1177548218160415,
      "advancement": -0.023636992864001363,
      "paced": -0.023636992864001363,
      "environment": -0.023636992864001363,
      "careers": -0.023636992864001363,
      "portal": -0.023636992864001363,
      "pretty": 0.19469948285645394,
      "legendary": 0.19469948285645394,
      "check": 0.7161249537215475,
      "openings": 0.19469948285645394,
      "depends": 0.29834353765598975,
      "role": 0.29834353765598975,
      "peep": 0.29834353765598975,
      "what's": 0.29834353765598975,
      "account": 0.32024222409096165,
      "hire": 0.10189633806110467,
      "16": 0.10189633806110467,
      "interest": -0.023633455134759274,
      "partnership": -0.023633455134759274,
      "inquiries": -0.11195146521265903,
      "corporate": -0.11195146521265903,
      "department": -0.11195146521265903,
      "through": -0.11195146521265903,
      "official": -0.11195146521265903,
      "channels": -0.023633455134759274,
      "yourself": 0.28129389055505744,
      "congratulations": -0.09411782895204021,
      "employment": -0.09411782895204021,
      "opportunity": -0.09411782895204021,
      "wish": -0.09411782895204021,
      "success": -0.09411782895204021,
      "journey": -0.09411782895204021,
      "organization": -0.09411782895204021,
      "aboard": -0.09411782895204021,
      "yep": 0.41952913280398696,
      "breakdown": 0.41952913280398696,
      "probably": 0.6500392217087176,
      "'eat": 0.7762599253078681,
      "me": 0.4316933356788608,
      "i'm": 0.4316933356788608,
      "delicious'": 0.4316933356788608,
      "less": 0.4316933356788608,
      "creepy": 0.4316933356788608,
      "creativity": -0.017591799793873493,
      "accept": -0.017591799793873493,
      "standard": -0.017591799793873493,
      "forms": -0.017591799793873493,
      "payment": -0.017591799793873493,
      "outlined": -0.017591799793873493,
      "policy": -0.017591799793873493,
      "bear": 0.15099371939798195,
      "him": 0.15099371939798195,
      "google": 0.21834588602985644,
      "light": 0.21834588602985644,
      "refraction": 0.21834588602985644,
      "submit": -0.08831801007789979,
      "sponsorship": -0.08831801007789979,
      "partnerships": -0.08831801007789979,
      "review": -0.08831801007789979,
      "case": -0.08831801007789979,
      "basis": -0.08831801007789979,
      "according": -0.08831801007789979,
      "guidelines": -0.08831801007789979,
      "was": 0.3445665896290072,
      "frosties'": 0.3445665896290072,
      "onto": 0.3445665896290072,
      "unable": -0.020546084009900666,
      "individual": -0.020546084009900666,
      "collaboration": -0.020546084009900666,
      "creative": -0.020546084009900666,
      "projects": -0.020546084009900666,
      "then": 0.6464239523399898,
      "absolutely": 0.6464239523399898,
      "philosophical": -0.13237512218553457,
      "seeking": -0.13237512218553457,
      "input": -0.13237512218553457,
      "perspectives": -0.13237512218553457,
      "taxonomy": -0.13237512218553457,
      "prefer": -0.13237512218553457,
      "core": -0.13237512218553457
    },
    "phrase_weights": {}
  }
}